/*!
 * The following copyright notice may not be removed under any circumstances.
 * 
 * Copyright:
 * Copyright (c) 2011 by Kimberly Geswein. All rights reserved.
 * 
 * Trademark:
 * A Safe Place to Fall is a trademark of Kimberly Geswein.
 * 
 * Description:
 * Copyright (c) 2011 by Kimberly Geswein. All rights reserved.
 * 
 * Manufacturer:
 * Kimberly Geswein
 * 
 * Designer:
 * Kimberly Geswein
 * 
 * License information:
 * http://kimberlygeswein.com
 */
Cufon.registerFont({"w":640,"face":{"font-family":"A Safe Place to Fall","font-weight":400,"font-stretch":"normal","units-per-em":"1024","panose-1":"2 0 0 0 0 0 0 0 0 0","ascent":"819","descent":"-205","x-height":"1","cap-height":"1","bbox":"-281.427 -1403.82 1054 710","underline-thickness":"0","underline-position":"0","unicode-range":"U+0020-U+20AC"},"glyphs":{" ":{"w":512},"\u00a0":{"w":512},")":{"d":"13,-867v13,-9,30,-22,47,-28v52,9,81,73,104,124v53,117,98,266,117,410v-12,132,-51,264,-120,341v-22,26,-87,37,-83,-13v9,-125,125,-167,123,-307v-2,-142,-32,-269,-97,-356v-36,-49,-86,-95,-91,-171","w":293},"*":{"d":"324,-472v14,17,16,68,-18,59v-24,-29,-54,-82,-78,-111v-24,22,-50,64,-68,92v-34,2,-63,32,-67,-21v-3,-39,12,-64,12,-99v-29,3,-93,20,-93,-21v16,-27,43,-77,68,-94r93,0v-5,-56,63,-120,85,-41v12,45,64,-31,87,16v17,36,47,61,51,112r-112,0v-13,39,29,72,40,108","w":427},"+":{"d":"316,-116v-25,4,-34,-24,-35,-45v-1,-61,13,-119,12,-180v-60,-1,-119,12,-179,11v-26,-1,-49,-3,-46,-32v10,-87,158,-37,228,-75v51,-27,-28,-175,66,-175v9,0,30,2,27,15r0,143v116,0,206,-37,321,-38v25,-1,48,24,34,52r-22,43v-109,-2,-239,6,-324,33v-15,6,-22,13,-22,20r0,187v-7,21,-36,38,-60,41","w":780},",":{"d":"171,-173v37,-6,42,27,41,65v-3,111,-49,164,-121,215v-27,3,-75,11,-67,-27v61,-51,88,-137,122,-214v8,-20,16,-33,25,-39","w":237},"-":{"d":"413,-293r-373,-13v-10,-9,-27,-17,-28,-34v-1,-20,19,-46,41,-46r333,0v33,10,57,56,27,93","w":480},".":{"d":"43,-93v15,-7,33,-15,55,-15v30,-2,40,26,40,52v0,34,-1,59,-39,57v-43,-3,-56,-41,-56,-94","w":176},"\/":{"d":"106,0v-59,13,-114,-7,-90,-74v2,-3,5,-5,10,-6r332,-611r82,-189v28,-28,83,-7,66,40v-109,300,-318,510,-400,840","w":520},"0":{"d":"232,1v-240,8,-244,-357,-142,-511v62,-94,148,-163,277,-183v79,14,115,92,144,163v46,111,74,320,-15,407v-62,61,-154,120,-264,124xm94,-280v-2,130,82,261,215,194v84,-42,156,-121,187,-218v10,-117,-32,-212,-98,-262v-89,-68,-188,27,-230,86v-36,51,-72,125,-74,200","w":600},"1":{"d":"123,-44v15,50,-52,73,-78,32v-9,-14,-11,-34,-9,-64v13,-191,49,-369,76,-543v11,-72,3,-159,40,-202v17,-21,57,-19,75,0v15,294,-84,505,-104,777","w":256},"2":{"d":"561,-92v-5,67,-93,25,-141,25v-126,0,-207,66,-332,68v-44,1,-79,-10,-75,-54v6,-64,61,-124,104,-178r97,-121v61,-77,125,-160,170,-244v20,-37,30,-69,30,-96v0,-73,-87,-39,-122,-20v-24,13,-45,30,-66,45v-16,-2,-14,-19,-14,-34v0,-79,92,-97,172,-100v69,-3,111,19,110,88v0,40,-10,73,-28,100r-333,493r0,11v127,0,227,-39,353,-39v41,0,78,10,75,56","w":573},"3":{"d":"356,-620v68,64,130,121,134,250v6,188,-115,278,-251,335v-66,28,-149,44,-237,40v11,-96,125,-96,204,-125v110,-41,204,-97,204,-248v0,-114,-82,-137,-150,-180v-29,-19,-47,-46,-38,-98r147,-127v-104,0,-173,-5,-243,-13v-53,-6,-35,-36,-8,-48v11,-5,26,-11,38,-12r343,7v29,23,69,41,33,75v-47,45,-130,93,-176,144","w":560},"4":{"d":"371,-12v-23,27,-82,11,-79,-33v5,-79,25,-142,25,-222r-277,0v-20,-4,-25,-32,-28,-53v35,-107,121,-194,194,-271r138,-146v26,-25,52,-52,76,-64v31,1,48,4,48,37v-1,134,-55,232,-56,367v0,34,16,38,48,38v53,0,88,-26,141,-29v43,-2,57,75,12,81r-213,27r-14,160v-2,37,5,86,-15,108xm106,-347v78,-5,188,25,227,-26r29,-123v8,-42,16,-89,16,-135v-66,13,-109,68,-151,113v-46,50,-92,110,-121,171","w":667},"5":{"d":"150,-16v-66,24,-158,27,-134,-58v14,-25,56,-24,95,-34v125,-33,254,-75,319,-168v33,-47,25,-129,-2,-174v-56,-94,-195,-108,-284,-164v-35,-22,-25,-71,-22,-117v4,-74,28,-132,91,-149v65,-18,145,-57,213,-68v36,-6,34,51,11,66v-76,50,-210,52,-212,178v7,32,47,46,77,66v99,64,219,119,219,274v0,116,-96,183,-171,242v-58,45,-128,79,-200,106","w":560},"6":{"d":"172,1v-144,2,-190,-144,-142,-275v69,-187,191,-360,317,-494v46,-49,90,-102,155,-102v19,0,32,13,39,38v-7,43,-57,85,-95,122r-94,92v-60,58,-122,123,-163,192v-18,30,-26,58,-23,81v92,-2,167,-48,263,-23v65,17,128,50,131,128v-45,158,-189,237,-388,241xm382,-306v-142,-4,-302,9,-302,146v0,84,72,123,160,100v92,-24,179,-68,226,-136v10,-16,15,-32,15,-49v2,-54,-48,-60,-99,-61","w":600},"7":{"d":"373,-468v59,1,160,-42,174,28v-17,56,-120,28,-174,53v-141,30,-95,250,-157,361v-11,18,-28,27,-51,27v-46,0,-36,-63,-28,-100v16,-71,74,-121,71,-207v0,-15,-9,-28,-21,-41v-53,7,-94,14,-150,14v-42,10,-50,-44,-23,-57v67,-31,173,-19,235,-62v79,-55,117,-151,116,-293v-99,10,-236,31,-272,-55v8,-15,25,-33,40,-40v73,20,217,14,294,0v63,-11,89,24,66,80","w":560},"8":{"d":"426,-413v70,55,197,155,130,277v-55,99,-194,124,-343,136v-247,20,-215,-335,-93,-440v-16,-37,-51,-61,-54,-107v-8,-129,80,-212,171,-257v65,-32,154,-35,216,-2v78,42,158,147,107,260v-27,60,-85,94,-134,133xm266,-388v-120,0,-174,80,-174,199v0,182,299,133,376,49v16,-17,26,-36,26,-57v-5,-130,-99,-191,-228,-191xm472,-542v76,-115,-59,-247,-200,-194v-69,26,-127,72,-127,163v0,132,270,117,327,31","w":600},"9":{"d":"234,8v-38,-5,-59,-45,-47,-88r72,-261v21,-83,43,-174,43,-271v-49,-1,-94,13,-143,13v-160,0,-157,-211,-75,-295v47,-47,138,-93,216,-48v64,37,132,95,142,182v-104,221,-84,568,-208,768xm235,-895v-87,0,-138,72,-143,159v-2,45,27,73,72,71v74,-4,170,-21,170,-95v0,-66,-33,-135,-99,-135","w":467},":":{"d":"126,-64v-17,25,-91,39,-91,-13v0,-40,44,-63,71,-31v12,9,33,25,20,44xm146,-467v-39,-13,-54,-41,-54,-88v0,-26,7,-31,34,-33v49,-4,33,49,33,85v0,11,-6,23,-13,36","w":187},";":{"d":"108,-2v15,-22,61,-21,59,12v-7,102,-40,204,-139,214v10,-85,40,-170,80,-226xm253,-320v-3,46,-41,77,-93,67v-31,-6,-2,-53,6,-71v8,-18,23,-37,46,-38v22,-1,43,20,41,42","w":324},"<":{"d":"523,-121v43,28,16,96,-32,85v-96,-52,-200,-91,-309,-134v-50,-20,-111,-43,-119,-99v-3,-24,27,-50,41,-60r347,-254v52,-11,49,50,23,80v-77,89,-211,140,-290,227v88,69,245,93,339,155","w":560},"=":{"d":"453,-174v12,83,-97,50,-179,56v-84,6,-182,2,-230,-36v-25,-20,-30,-78,22,-74v125,9,254,32,374,41v7,3,12,8,13,13xm415,-373v0,42,-45,29,-86,25v-95,-8,-204,-29,-280,-58v-30,-12,-22,-31,-9,-47r191,-5v84,2,184,5,184,85","w":493},">":{"d":"137,1v-63,9,-95,-53,-51,-93v68,-61,178,-102,241,-168v25,-26,31,-40,1,-66v-93,-78,-221,-144,-302,-234v-8,-8,-12,-27,-13,-40v-2,-23,28,-42,53,-40v104,124,252,244,414,307v11,86,-61,104,-107,137r-93,67v-50,39,-111,84,-143,130","w":493},"?":{"d":"125,1v-29,0,-47,-17,-47,-46v1,-46,20,-62,68,-62v25,0,27,43,28,70v1,33,-18,37,-49,38xm173,-467v-3,53,-29,108,-80,108v-31,0,-40,-32,-40,-68v105,-135,267,-227,341,-393v13,-30,20,-62,20,-95v0,-56,-76,-58,-133,-60v-136,-5,-165,65,-241,122v-41,-10,-32,-71,-13,-99v47,-69,153,-89,266,-89v105,0,201,21,201,128v0,151,-106,244,-192,325","w":507},"@":{"d":"94,-345v-7,276,256,320,521,277v55,-9,111,-15,172,-15r0,43v-168,71,-480,98,-631,-12v-83,-61,-134,-152,-130,-300v7,-253,120,-409,307,-480v64,-24,135,-36,214,-36v183,0,286,88,363,198v60,86,94,265,3,342v-61,52,-197,57,-265,8v-78,2,-157,24,-236,24v-93,0,-158,-37,-158,-131v0,-144,135,-206,280,-214v133,-7,134,117,134,248v0,13,5,20,12,20v107,0,184,-23,219,-87v33,-164,-97,-274,-225,-320v-42,-14,-84,-21,-126,-21v-291,6,-446,163,-454,456xm560,-413v-9,-50,5,-133,-26,-160v-84,1,-147,38,-183,91v-13,19,-19,40,-19,63v0,44,45,47,88,47v51,0,97,-14,140,-41","w":1000},"A":{"d":"515,-96v7,40,17,94,-27,97v-90,-47,-59,-230,-101,-334v-87,-2,-141,10,-200,40v-74,38,-59,173,-87,257v-8,23,-40,33,-61,30v-29,-5,-9,-44,-5,-66v9,-55,38,-101,33,-168v-8,-14,-41,-27,-41,-47v0,-66,85,-53,108,-100v58,-121,117,-270,133,-426v14,-16,56,-23,67,-3r106,396r187,0v15,12,19,49,0,60v-57,-4,-114,-2,-160,13v9,86,34,170,48,251xm220,-402v-8,21,-6,21,14,21v44,0,93,-15,124,-27v13,-72,-35,-151,-51,-219v-31,69,-58,153,-87,225"},"B":{"d":"260,-3v-80,8,-160,24,-154,-65v1,-17,7,-31,28,-25v-9,-223,44,-419,22,-647r-116,0v-14,-4,-14,-26,-14,-43v-3,-54,46,-31,96,-25r172,21v107,20,215,52,266,129v54,132,-104,184,-200,231v102,27,216,77,276,151v37,45,52,110,6,152v-85,76,-239,107,-382,121xm214,-133v-14,13,-44,31,-53,47v-13,22,4,23,37,21v137,-9,292,-28,378,-92v68,-50,-17,-116,-58,-137v-79,-41,-178,-78,-291,-79v-17,70,-17,159,-13,240xm226,-465v124,-9,229,-61,282,-142v-21,-91,-137,-101,-237,-114v-56,10,-51,98,-49,163","w":680},"C":{"d":"642,-41v0,38,-44,39,-82,41v-223,10,-428,8,-502,-126v-95,-173,19,-406,116,-510v40,-43,91,-79,166,-84v49,-3,39,60,20,78v-29,29,-88,28,-120,55v-82,70,-143,176,-146,320v-5,237,280,209,506,200v29,-1,42,3,42,26","w":667},"D":{"d":"128,43v-32,7,-43,-9,-43,-40v0,-56,55,-33,70,-67r0,-320v-8,-94,1,-196,-59,-242v-32,1,-43,10,-61,29v-13,-8,-30,-27,-28,-47v6,-66,101,-74,169,-74v244,0,454,81,550,242v41,69,40,176,-3,242v-112,175,-361,229,-595,277xm613,-506v-97,-75,-228,-135,-392,-131r27,560v191,6,332,-75,410,-195v30,-46,44,-112,13,-166v-14,-25,-33,-48,-58,-68","w":773},"E":{"d":"66,1v-34,0,-41,-31,-39,-68r25,-509v2,-37,5,-68,8,-92v3,-24,5,-36,7,-39v67,-26,209,-40,293,-21v27,6,18,45,4,56v-48,38,-173,-7,-230,32r-14,213r304,-6v15,8,14,36,8,57v-77,39,-247,-14,-312,56v-14,66,-15,135,-13,213v119,37,244,-21,373,-13v26,-5,38,26,30,52v-3,8,-8,13,-16,15r-212,35v-38,5,-75,10,-112,14v-37,4,-72,5,-104,5","w":533},"F":{"d":"378,-668v-81,2,-169,10,-234,28v2,44,-4,103,-3,152v0,41,1,82,10,112v4,13,10,19,17,20v93,-2,153,-50,253,-45v22,0,33,10,31,34v-10,111,-209,28,-282,100r0,247v-9,26,-61,11,-90,12r-30,-712v144,8,260,-26,402,-27v24,-1,26,14,26,35v0,42,-57,43,-100,44","w":504},"G":{"d":"413,173v0,32,-69,65,-68,11r1,-130r14,-148v3,-27,8,-58,13,-93r-53,43v-65,47,-142,118,-240,118v-107,0,-85,-139,-66,-230v42,-202,137,-375,266,-492v31,-27,63,-47,96,-60v34,3,49,34,46,72v-154,93,-246,276,-314,454v-19,50,-37,96,-28,150v7,43,63,21,92,8v86,-39,136,-126,206,-182v27,-22,76,-29,76,24v0,166,-41,281,-41,455","w":493},"H":{"d":"559,-4v-27,-2,-72,2,-72,-23r-3,-215r-327,-17v-18,73,12,147,14,217v0,52,-77,28,-91,2v-34,-182,-14,-436,-54,-616v1,-26,10,-54,40,-52v77,2,55,95,62,165r19,195r329,12r-10,-312v-6,-38,35,-36,62,-29v26,16,23,58,29,107v4,35,8,74,9,117v3,145,21,324,-7,449","w":627},"I":{"d":"80,1v-15,0,-23,-1,-27,-14r2,-174v1,-182,-7,-358,-42,-508v-1,-22,18,-41,40,-40v30,9,40,56,48,97v34,173,45,383,45,585v0,33,-33,54,-66,54","w":160},"J":{"d":"782,-573r-312,-8v4,196,112,315,90,528v-91,103,-331,43,-401,-35v-18,-20,-35,-40,-40,-64v-12,-55,79,-35,103,-28v53,15,39,82,98,93v38,6,153,28,165,-16v28,-103,-33,-199,-55,-295v-14,-63,-38,-131,-70,-175v-109,-14,-197,19,-300,26v-42,3,-38,-39,-32,-68v2,-7,11,-11,26,-12r266,-26v10,-36,98,-44,120,-14r360,0v15,1,16,19,15,34v-2,26,-7,61,-33,60","w":840},"K":{"d":"253,-53v2,43,-40,64,-76,49v-102,-180,-62,-508,-165,-697v-4,-46,56,-64,80,-23v39,68,38,194,66,275v13,37,28,29,59,6r220,-162v39,-25,79,-55,123,-63v50,-9,49,50,27,72v-37,40,-119,43,-160,79v-29,25,-8,51,11,83r88,149r127,205v7,37,1,86,-39,81v-44,-6,-66,-67,-90,-111v-17,-31,-32,-67,-48,-104v-30,-66,-66,-133,-106,-182v-63,-76,-134,11,-160,62v-8,15,-12,28,-12,38v1,93,50,153,55,243","w":680},"L":{"d":"254,-16v-49,7,-112,41,-130,-11v1,-268,-26,-510,-107,-700v0,-20,18,-50,40,-48v85,10,84,106,93,193r52,482v2,12,2,15,2,8v131,36,228,-98,360,-41v27,38,-7,54,-40,66v-74,28,-182,38,-270,51","w":591},"M":{"d":"107,-667v-1,221,55,403,55,622v0,49,-58,53,-80,18v-27,-43,-18,-104,-24,-174r-26,-311v-3,-51,-5,-97,-5,-137v0,-59,56,-92,115,-99v48,6,77,55,103,94v52,78,96,174,157,240v17,18,35,27,52,27v96,-100,158,-210,190,-367v7,-34,68,-24,92,-3v14,13,28,24,38,37v37,203,14,459,53,661v-6,40,-107,70,-107,6v0,-191,-3,-363,-26,-534v-85,74,-121,222,-202,301v-30,29,-77,25,-92,-7","w":853},"N":{"d":"13,-653v1,-38,7,-69,47,-68v48,1,61,26,73,68r367,495v15,15,14,27,33,25r14,-185v14,-149,-50,-241,-54,-375v6,-31,38,-47,71,-51r34,248r18,326v-1,47,38,174,-42,158v-168,-34,-223,-215,-310,-342v-46,-67,-93,-137,-158,-179v-38,136,33,349,-17,489v-9,25,-22,42,-47,45v-10,-6,-22,-18,-29,-28r0,-626"},"O":{"d":"296,1v-206,-2,-270,-150,-270,-354v0,-175,72,-313,186,-383v66,-40,175,-59,246,-14v155,97,221,311,209,563v-44,146,-181,190,-371,188xm315,-65v158,-7,287,-52,287,-211v0,-174,-70,-324,-183,-398v-75,-49,-180,-4,-221,44v-116,138,-165,577,117,565","w":707},"P":{"d":"414,-65v0,34,-23,62,-56,66v-31,-5,-34,-51,-38,-81v-11,-83,-18,-166,-26,-250v-8,-84,-7,-169,-16,-254v-6,-52,63,-83,75,-27v16,75,14,178,20,264v86,1,150,-51,205,-95v56,-45,130,-97,130,-178v0,-182,-261,-151,-416,-120v-82,16,-155,53,-199,113v9,15,16,24,16,46v-48,-2,-99,-10,-99,-58v0,-96,108,-125,194,-149v207,-58,584,-92,584,165v0,217,-234,263,-373,362v-20,13,-30,25,-30,36v1,59,29,101,29,160","w":827},"Q":{"d":"718,1v-75,0,-60,-117,-136,-122v-107,50,-306,128,-427,43v-126,-89,-163,-351,-101,-534v54,-159,178,-269,388,-269v66,0,114,52,154,97v74,83,137,198,176,314v46,137,-20,243,-105,297v22,52,87,83,95,145v4,29,-17,29,-44,29xm614,-239v83,-24,128,-130,96,-233v-40,-130,-109,-251,-220,-308v-129,-66,-267,28,-322,114v-102,159,-124,557,148,534v70,-5,148,-5,196,-32v11,-6,19,-14,22,-23v-51,-71,-108,-143,-174,-200v-3,-33,-7,-71,34,-66v105,14,111,144,179,198v12,11,26,16,41,16","w":813},"R":{"d":"601,-27v1,31,-21,28,-48,28v-87,0,-84,-108,-140,-148r-151,-107v-20,-11,-15,-14,-30,-13r4,235v7,45,-68,73,-84,30v-26,-69,-14,-189,-19,-278v-9,-24,-44,-25,-41,-59v5,-58,33,-93,22,-167r-21,-147v-4,-52,-83,-6,-80,-74v2,-63,60,-69,107,-86v218,-6,481,-10,481,197v0,177,-189,198,-308,269v86,92,219,158,290,265v12,19,18,37,18,55xm173,-707r29,259v7,28,-1,42,16,49v117,-23,230,-80,296,-156v60,-68,-22,-147,-82,-167v-66,-22,-151,-28,-237,-26v-21,0,-42,6,-62,15","w":627},"S":{"d":"80,0v-43,3,-52,-25,-56,-64v-7,-78,88,-59,123,-29v100,-4,188,-36,231,-99v40,-59,-25,-104,-59,-138v-74,-75,-177,-143,-252,-217v-29,-62,-40,-163,3,-221v56,-75,155,-124,277,-127v61,-2,148,-12,147,55v-1,38,-5,43,-39,43v-28,0,-47,-5,-55,-30v-151,-8,-281,37,-281,176v0,160,167,189,261,268v45,38,91,79,91,156v0,178,-233,185,-391,227","w":507},"T":{"d":"506,-27v0,37,-62,34,-80,14r8,-275v-1,-96,-3,-196,-34,-259v-139,23,-247,85,-360,135v-39,3,-34,-62,-14,-81r424,-151r281,-62v29,-5,40,-14,71,-14v49,0,45,55,20,77v-68,58,-224,34,-316,70r0,546","w":867},"U":{"d":"714,-25v-90,0,-82,-116,-87,-202v-122,97,-229,220,-435,228v-205,8,-172,-247,-160,-435v7,-102,21,-219,11,-322v20,-21,26,-28,60,-28v20,0,33,3,33,25v-2,145,-30,318,-30,463v0,97,-10,229,88,229v185,0,315,-116,386,-248v33,-62,20,-150,21,-237r1,-155v-6,-42,41,-73,56,-23v57,189,76,444,90,678v1,23,-12,27,-34,27","w":787},"V":{"d":"480,-734v35,-5,59,0,54,39v5,-9,7,-9,6,0r-52,285v-8,51,-14,108,-21,170v-7,62,-9,127,-14,195v-4,53,-94,57,-107,5r-306,-573v-28,-20,-52,-107,0,-120v23,2,40,28,53,40r125,261v43,84,85,156,142,232v4,1,9,1,13,0v45,-154,62,-350,93,-520v2,-8,7,-13,14,-14","w":573},"W":{"d":"987,-760r1,133v0,218,-29,404,-68,587v-4,19,-16,41,-40,41v-84,0,-70,-88,-120,-121r-213,-307v-8,-13,-25,-20,-40,-26v-80,118,-124,266,-173,413v-13,22,-53,16,-87,19r0,-86r-180,-560v-26,-31,-42,-57,-41,-112v1,-27,-3,-52,28,-49v43,5,60,27,72,76r34,139r120,386r18,18r149,-298r0,-92v49,3,78,21,100,52r267,374v8,6,23,35,40,26v72,-157,66,-396,53,-613v4,-8,28,-27,40,-27v12,0,36,19,40,27","w":1027},"X":{"d":"226,3v-49,3,-40,-41,-40,-83v60,-66,105,-154,147,-240v-71,-166,-205,-301,-320,-427v-3,-32,-1,-58,35,-54v49,5,79,50,110,87v77,96,137,234,228,314v89,-150,135,-334,200,-507v40,2,87,-14,82,35r-2,19r-186,440v-14,22,-42,48,-42,80v0,104,125,106,136,201v4,35,-28,66,-68,52r-113,-154v-3,-3,-6,-5,-7,-6v-83,50,-38,233,-160,243","w":693},"Y":{"d":"17,-840v-2,-33,-2,-59,35,-55v80,34,147,135,201,204r149,189v20,25,33,42,42,49v86,-129,101,-299,146,-467v30,-25,91,-6,82,33v-72,330,-189,652,-364,887v-15,10,-57,23,-60,-10v-5,-58,45,-105,68,-158v25,-58,57,-132,68,-208","w":697},"Z":{"d":"125,1v-63,0,-73,-56,-41,-107r195,-314r72,-123v36,-66,70,-131,85,-202v4,-25,1,-44,-10,-55v-129,-12,-251,9,-377,15v-39,2,-42,-38,-32,-65v48,-40,158,-28,242,-31v77,-3,150,1,215,-14v39,1,47,35,47,74v0,326,-249,455,-335,714v175,13,341,-14,516,-13v31,1,46,4,46,37v0,99,-133,40,-206,47v-141,13,-270,37,-417,37","w":773},"`":{"d":"13,-827v-19,-54,24,-71,67,-53v26,47,70,90,96,136v25,22,19,80,-16,83v-10,1,-24,-3,-36,-19","w":228},"[":{"d":"464,-104v2,35,8,73,-27,80v-119,-28,-213,-29,-357,-29v-29,0,-39,-27,-40,-54r-17,-799v0,-25,-1,-38,14,-52r327,6v38,4,71,-6,69,38v-1,14,-8,32,-22,32r-267,-9v-57,185,-19,498,-10,718v1,22,38,25,66,31v81,16,191,16,264,38","w":492},"\\":{"d":"587,-107v29,16,9,58,13,94v-17,18,-61,19,-76,0r-524,-627v-5,-26,8,-53,33,-53v196,175,361,405,554,586","w":613},"]":{"d":"79,-954v110,-4,279,-43,281,74v6,291,71,565,80,853r-267,27v-38,6,-52,-27,-53,-60v15,-75,150,-21,226,-47v-5,-275,-33,-544,-82,-777r-238,4v-23,-5,-19,-62,0,-67v20,-5,38,-6,53,-7","w":480},"^":{"d":"481,-750v-1,27,1,44,-28,44v-107,-24,-101,-182,-177,-237v-104,-75,-133,101,-195,157v-10,9,-22,14,-35,14v-36,0,-42,-49,-20,-80v51,-72,115,-156,182,-211v31,-26,39,-23,68,5v74,70,142,174,191,268v9,19,14,33,14,40","w":507},"_":{"d":"13,-93v1,-59,87,-40,139,-37r448,23v16,29,37,60,7,83v-8,6,-19,15,-34,24v-132,-59,-341,-49,-520,-40v-26,1,-40,-31,-40,-53","w":653},"a":{"d":"151,-14v-50,21,-143,30,-139,-39v9,-150,174,-160,240,-255v12,-18,20,-37,20,-61v-58,0,-96,0,-133,7v-27,6,-17,29,-36,44v-8,10,-55,44,-67,10v-41,-106,94,-126,204,-135v102,-8,132,79,162,157v27,70,40,159,59,229v-53,60,-75,-50,-107,-81v-7,-8,-14,-10,-21,-9v-51,50,-110,104,-182,133xm293,-227v-49,23,-114,60,-151,97v-18,19,-23,25,-22,50v58,-26,125,-61,161,-112v8,-12,12,-23,12,-35","w":480},"b":{"d":"285,-39v-72,44,-218,70,-218,-41v0,-262,-40,-481,-40,-736v0,-17,14,-41,33,-39v30,4,44,39,47,68r40,440v96,-67,328,-63,320,87v-6,115,-101,172,-182,221xm400,-267v0,-46,-53,-54,-100,-54v-58,0,-145,12,-140,69r14,175v88,-7,161,-63,202,-121v16,-23,24,-46,24,-69","w":467},"c":{"d":"464,-52v-135,56,-442,113,-438,-95v2,-110,60,-190,136,-231v28,-15,59,-23,93,-23v40,0,74,35,38,57v-74,45,-187,58,-187,175v0,77,28,103,105,104v79,0,137,-29,216,-30v24,0,55,-3,55,22v0,7,-5,16,-18,21","w":507},"d":{"d":"460,74v-79,0,-55,-132,-77,-194v-52,63,-121,132,-226,141v-132,11,-165,-134,-119,-240v37,-85,115,-151,222,-161v50,-5,88,24,80,80v-26,-15,-44,-15,-80,-15v-100,0,-165,92,-175,195v-4,38,27,78,67,74v167,-17,216,-184,216,-357v0,-86,-29,-152,-29,-239v0,-33,11,-62,49,-60v36,9,41,74,47,125v16,130,7,300,12,437v3,74,55,114,66,180v-3,23,-29,34,-53,34","w":533},"e":{"d":"311,-5v-178,0,-294,-85,-294,-274v0,-163,292,-159,344,-39v-12,94,-125,97,-183,146v-56,85,101,82,161,114v17,9,19,43,2,49v-8,3,-18,4,-30,4xm93,-260v0,60,78,28,110,11v25,-14,55,-35,50,-71v-28,-31,-104,-25,-133,7v-12,14,-27,30,-27,53","w":384},"f":{"d":"255,-33v0,41,-74,44,-89,13v-29,-56,-42,-138,-59,-207v-39,-13,-112,25,-108,-40v2,-38,42,-50,81,-53r13,-293v6,-76,47,-138,103,-163v82,-36,141,36,141,116v0,34,-36,47,-70,47v-11,-10,-27,-7,-21,-25v2,-4,4,-11,7,-22v1,-16,-13,-21,-28,-21v-31,8,-50,46,-52,81r-17,272r217,1v25,6,30,42,34,68v-70,-1,-169,-3,-220,19v-1,93,40,142,68,207","w":368},"g":{"d":"-15,668v-80,0,-157,-28,-129,-110v9,-26,32,-45,66,-46v6,35,-37,83,11,88v198,22,340,-60,409,-192v69,-132,-3,-290,-38,-408v-9,-31,-22,-66,-38,-80v-131,37,-255,22,-241,-126v10,-104,52,-180,160,-180v82,0,136,44,161,106v-27,220,95,346,95,555v0,203,-130,314,-287,367v-54,18,-111,26,-169,26xm214,-308v-66,0,-118,37,-122,103v-2,36,31,62,65,60v69,-3,107,-52,111,-121v2,-31,-27,-42,-54,-42","w":400},"h":{"d":"480,-53v-2,38,-47,71,-78,39v-61,-62,-80,-187,-191,-187v-80,0,-42,123,-75,179v-6,10,-15,14,-28,14v-107,0,-45,-177,-60,-280r-44,-296v-14,-39,26,-63,64,-59v11,1,14,8,16,19r62,357v56,-17,124,-22,172,15v64,50,125,127,162,199","w":479},"i":{"d":"188,-33v-14,50,-110,35,-128,1v-18,-69,-20,-176,-21,-264v0,-42,2,-90,13,-116r60,0r1,305v2,46,73,28,75,74xm33,-582v-41,-15,-11,-77,27,-73v27,3,62,24,39,53v-15,18,-41,41,-66,20","w":187},"j":{"d":"252,137v27,111,38,301,-115,264v-105,-25,-191,-111,-191,-234v0,-34,8,-41,41,-47v20,76,42,129,85,168v28,24,59,25,103,20v23,-3,29,-13,25,-41v-25,-179,-97,-332,-148,-487v-2,-37,34,-37,68,-33v37,133,99,253,132,390xm46,-545v-24,0,-47,-15,-47,-42v0,-18,22,-40,41,-40v25,0,42,25,42,47v-1,28,-8,35,-36,35","w":213},"k":{"d":"194,-40v-3,50,-86,52,-94,0r-66,-453v-8,-40,-39,-99,-24,-150v6,-20,40,-34,60,-20v41,29,22,136,46,187v7,15,16,23,30,24v69,1,123,-41,188,-41v39,0,76,46,46,80v-69,7,-181,-8,-200,53r260,304r-31,36v-68,-4,-112,-61,-149,-106v-39,-48,-78,-115,-120,-154v1,98,24,168,54,240","w":420},"l":{"d":"113,-166v4,48,-19,123,41,114v28,-4,46,23,29,46v-18,25,-70,33,-101,12v-16,-11,-37,-27,-38,-64r-8,-543v-9,-40,9,-80,49,-60v11,6,23,18,35,37r-6,246","w":188},"m":{"d":"428,-139v0,43,-51,42,-68,18v-51,-78,-62,-203,-196,-200v-36,2,-61,38,-52,76r44,197v19,45,-25,50,-54,35v-33,-17,-35,-57,-46,-93v-20,-63,-30,-139,-29,-214v39,-44,107,-101,190,-72v47,15,80,48,130,59v58,-5,99,-67,160,-67v151,0,204,136,233,269v11,49,16,110,-20,131v-114,-63,-21,-320,-218,-323v-54,0,-90,27,-90,82v0,37,16,65,16,102","w":773},"n":{"d":"280,-262v-53,-35,-170,-27,-166,55v4,66,30,110,42,167v-18,18,-30,47,-66,37v-9,-3,-18,-11,-28,-24r-21,-137v-9,-47,-19,-94,-37,-132v71,-69,259,-100,341,-8v61,69,116,156,122,277v-88,-16,-92,-129,-141,-188v-15,-17,-28,-34,-46,-47","w":489},"o":{"d":"220,1v-113,0,-202,-41,-207,-154v-4,-103,38,-196,107,-231v135,-69,230,75,268,182v11,32,15,61,14,86v-4,94,-88,117,-182,117xm217,-65v55,-1,109,-7,116,-62v10,-74,-41,-137,-83,-175v-54,-49,-107,13,-132,48v-18,25,-34,63,-26,101v-2,75,52,90,125,88","w":440},"p":{"d":"34,-361v144,-1,318,-8,314,141v-3,124,-118,153,-174,228v-34,46,-3,121,6,179r20,133v-7,25,-64,44,-80,14r-44,-308v-8,-52,-20,-104,-28,-156v-10,-71,-51,-143,-32,-218v4,-7,10,-11,18,-13xm268,-213v6,-82,-89,-73,-166,-72v6,78,27,152,44,219v72,-10,117,-75,122,-147","w":387},"q":{"d":"320,333v38,-26,71,-58,112,-81v41,-4,42,42,29,72v-116,46,-152,162,-193,279v-7,19,-17,35,-28,50v-14,-8,-30,-27,-40,-40v32,-132,52,-256,42,-421r1,-130v-2,-50,-3,-104,-16,-142v-138,67,-255,-48,-197,-184v27,-64,88,-114,171,-128v123,-21,119,87,119,205r0,520xm208,-300v-53,11,-110,49,-124,100v0,29,24,65,56,60v52,-9,90,-68,103,-119v-1,-30,-4,-41,-35,-41","w":333},"r":{"d":"160,-132v14,52,42,150,-42,132v-61,-92,-53,-245,-105,-347v14,-32,55,-36,76,-12v7,7,15,12,24,14v43,-47,141,-95,219,-47v30,4,68,19,44,45v-33,36,-118,-13,-170,19v-64,20,-66,121,-46,196","w":396},"s":{"d":"254,-107v0,77,-73,108,-150,108v-50,0,-79,-39,-91,-81v52,8,154,20,160,-40v-29,-66,-95,-119,-123,-186v-42,-100,39,-190,142,-189v35,1,48,-1,49,36v2,79,-115,28,-109,114v8,109,122,126,122,238","w":280},"t":{"d":"306,-378v39,-2,59,63,20,78v-40,16,-113,13,-154,28v6,48,-5,127,10,171v4,15,14,22,27,21v31,-15,53,-22,67,-21v30,2,29,22,16,45v-13,24,-38,50,-64,60v-12,5,-22,4,-31,-3v-126,1,-90,-159,-118,-259v-33,0,-54,25,-88,14v-16,-1,-35,-2,-33,-21v3,-67,82,-66,118,-99v-13,-53,-14,-148,-22,-206v-5,-44,36,-48,72,-40v49,28,19,148,34,218v4,17,8,27,16,27v44,2,87,-11,130,-13","w":324},"u":{"d":"191,1v-168,0,-170,-178,-164,-348v1,-16,25,-14,41,-14v27,1,52,5,52,33v1,35,-14,59,-14,95v1,93,20,170,114,168v110,-2,183,-62,194,-162v4,-38,-27,-62,-28,-100v-1,-30,3,-52,34,-48v52,6,71,71,74,122v11,177,-131,254,-303,254","w":520},"v":{"d":"347,-480v33,-7,59,0,54,40v-18,149,-76,297,-129,414v-16,36,-26,36,-48,10v-96,-110,-150,-241,-225,-385v4,-40,71,-31,92,-8v52,55,73,153,116,218v9,14,19,22,33,18","w":440},"w":{"d":"334,-161v-117,-6,-32,175,-160,161v-22,-8,-26,-39,-35,-58r-113,-237v-15,-27,-15,-55,-13,-92v21,-11,40,-17,69,-13v25,24,26,84,42,122v16,39,31,84,62,105v34,-39,58,-68,123,-68v89,0,127,71,211,77r0,-316v6,-26,54,-15,66,0r16,372v6,35,32,112,-25,109v-124,-8,-115,-156,-243,-162"},"x":{"d":"121,-241v-4,-74,-100,-75,-108,-146v-10,-23,-2,-57,22,-55v7,1,14,7,21,18r132,100v27,-38,58,-63,96,-88v87,-7,36,55,9,82v-19,19,-43,45,-57,66v49,79,119,128,177,197v27,33,-6,67,-43,47v-65,-35,-118,-92,-170,-140v-38,40,-74,113,-107,160v-35,-1,-55,2,-67,-27v30,-62,82,-136,95,-214","w":453},"y":{"d":"181,710v-79,-1,-117,-75,-100,-155v2,-4,6,-7,11,-8v50,22,21,110,100,95v236,-45,292,-323,269,-610v-4,-47,-13,-89,-23,-125v-100,54,-286,91,-356,-17v-36,-56,-59,-132,-60,-230v8,-17,52,-21,58,6v24,99,33,231,161,229v84,-1,192,-13,168,-114v-9,-38,-18,-80,-21,-121v-1,-28,19,-27,44,-28v59,16,65,119,73,182r40,326v-9,244,-82,450,-245,542v-35,20,-75,28,-119,28","w":560},"z":{"d":"200,-160v100,88,215,192,215,369v0,190,-142,287,-291,339v-115,41,-254,22,-356,-10v-37,-11,-69,-45,-35,-78v16,-16,38,-32,67,-35v27,-3,39,31,11,39v-8,5,-20,7,-24,16v19,38,109,30,161,28v155,-4,290,-61,360,-156v43,-58,52,-149,21,-222v-45,-107,-142,-173,-218,-248v-13,-13,-19,-24,-19,-34v4,-76,75,-99,76,-178v-52,-1,-72,35,-121,36v-26,1,-49,-21,-47,-46v6,-68,100,-76,171,-76v59,0,98,34,96,96v-2,69,-66,89,-67,160","w":373},"{":{"d":"192,181v-94,0,-145,-81,-145,-174v0,-134,83,-210,83,-343v0,-56,-70,-57,-70,-111v0,-92,136,-76,134,-180v-2,-109,-70,-174,-70,-285v0,-113,57,-207,170,-215v32,-2,42,25,33,54v-79,12,-144,53,-135,153v11,115,70,178,70,293v0,83,-41,129,-82,180v89,173,-81,309,-49,499v8,49,54,58,116,48v10,13,15,20,15,40v0,34,-36,41,-70,41","w":307},"|":{"d":"72,90v-53,9,-53,-34,-47,-81v51,-371,18,-813,43,-1216v33,-5,53,20,64,43v44,414,-36,814,-14,1240v-3,17,-28,15,-46,14","w":160},"}":{"d":"122,-371v4,138,38,250,28,399v-24,56,-42,119,-120,120v-16,-4,-21,-26,-27,-40v13,-44,86,-33,93,-80v22,-155,-41,-266,-41,-407v0,-33,29,-42,29,-73v0,-63,-42,-96,-42,-160v0,-153,96,-236,96,-387v0,-79,-61,-104,-63,-181v89,6,117,99,117,188v0,146,-94,222,-97,369v-2,73,39,98,71,135v9,10,13,22,13,37v2,50,-58,30,-57,80","w":213},"~":{"d":"548,-772v15,4,25,18,33,28v-13,82,-96,136,-176,144v-100,10,-124,-72,-176,-121r-40,-4v-75,2,-76,97,-146,97v-30,0,-29,-37,-27,-66v46,-56,97,-120,193,-120v106,0,97,129,199,134v78,4,69,-88,140,-92","w":608},"\u20ac":{"d":"226,-267v-27,262,316,271,494,174v26,-4,41,20,42,41v-72,70,-243,84,-379,67v-153,-19,-219,-124,-250,-268r-93,0v-4,0,-15,-22,-14,-27v-1,-72,111,-26,102,-107r-102,0v-20,-1,-15,-37,-8,-49v4,-6,11,-12,22,-17r136,-20v58,-132,111,-246,238,-297v32,-12,59,-4,92,-3v13,13,29,26,40,40v-111,54,-253,94,-264,250v103,0,199,-18,304,-10v27,9,13,53,0,66r-122,-8v-80,-3,-165,1,-207,38v-14,12,-21,28,-21,49r377,1v32,4,22,57,0,67v-120,-4,-281,-9,-387,13","w":787},"\u00a3":{"d":"418,-80v33,-3,62,0,54,36v-13,56,-133,51,-196,40v-46,-8,-72,-48,-103,-76v-16,33,-24,41,-64,41v-31,0,-44,-1,-44,-34v28,-122,134,-197,132,-351v-59,1,-100,23,-159,25v-36,1,-30,-52,-11,-66v39,-28,120,-20,171,-37v10,-4,15,-10,15,-18r0,-267v-9,-84,20,-150,71,-173v62,-28,115,6,144,53v2,97,-100,86,-122,160v-20,65,-13,155,-14,239r164,22v17,8,14,42,15,67r-179,-17r-40,116v-12,56,-44,117,-18,175v26,57,105,104,184,65xm346,-893v-12,10,-30,21,-30,42v27,1,36,-18,30,-42","w":493},"!":{"d":"66,1v-27,0,-54,0,-54,-26v0,-30,18,-57,48,-56v32,1,48,4,48,38v-1,37,-5,43,-42,44xm105,-279v-45,0,-26,-48,-27,-97r-12,-447v1,-35,7,-72,42,-72v28,0,30,16,38,42v-5,184,27,338,27,520v0,33,-35,54,-68,54","w":187},"\"":{"d":"100,-824v0,62,38,161,-30,158v-50,-16,-53,-108,-58,-169v-5,-43,51,-63,81,-32xm288,-706v-58,0,-69,-70,-76,-128v-6,-55,43,-98,77,-53v7,8,16,21,17,33v-22,27,2,75,2,108v0,17,-3,40,-20,40","w":347},"#":{"d":"602,-483v124,-1,215,-51,339,-52v41,-1,39,33,45,68v-145,-2,-283,32,-400,67v-62,87,-66,253,-80,387v-8,25,-51,14,-65,1v-10,-9,-15,-23,-15,-41v24,-96,52,-204,52,-318v-60,-5,-128,28,-185,38v-78,46,-28,213,-81,289v-18,25,-91,33,-79,-23r40,-186v1,-16,5,-40,-13,-40r-107,0v-18,-7,-24,-62,0,-67v80,-15,152,-10,173,-78v6,-19,8,-45,8,-79v-73,2,-101,61,-174,65v-36,2,-68,-49,-34,-68v65,-38,152,-54,227,-80v35,-41,18,-157,49,-212v13,-5,58,-9,58,12r0,171v116,0,189,-20,202,-117v4,-27,9,-49,38,-54v41,12,58,50,53,107v126,0,231,-40,348,-40v24,0,50,10,53,33v-3,23,-32,30,-54,33r-360,54v-47,8,-39,79,-38,130xm522,-588v-124,0,-207,40,-206,165v131,3,210,-33,206,-165","w":1053},"$":{"d":"293,200v-13,28,-96,50,-95,-5v2,-85,32,-151,27,-237v-42,-27,-111,17,-173,17v-27,0,-42,-24,-42,-48v0,-95,179,-2,230,-73r50,-312v4,-32,4,-46,3,-75v-68,-90,-161,-228,-105,-381v29,-79,104,-106,158,-166v27,-30,-12,-108,60,-108v60,0,35,60,80,77v32,25,124,18,127,71v-16,16,-20,42,-52,42v-42,-2,-58,-41,-107,-29v-26,6,-18,46,-23,79r-38,262v-5,46,-10,95,-7,140v71,75,162,150,162,286v0,123,-133,153,-228,194v-42,52,-33,182,-27,266xm423,-406v-11,-20,-46,-58,-63,-15v-26,71,-34,175,-40,265v58,-6,112,-41,142,-78v46,-58,-13,-128,-39,-172xm346,-992v-99,15,-105,171,-86,272v5,28,22,55,46,67v29,-99,39,-217,40,-339","w":627},"\u201e":{"d":"110,-126v0,62,38,161,-30,158v-50,-16,-53,-108,-58,-169v-5,-43,51,-63,81,-32xm298,-8v-58,0,-69,-70,-76,-128v-6,-55,43,-98,77,-53v7,8,16,21,17,33v-22,27,2,75,2,108v0,17,-3,40,-20,40","w":347},"\u201a":{"d":"37,-196v75,-31,100,92,80,168v-6,20,-15,36,-28,48v-54,-45,-34,-130,-57,-209v0,-3,2,-5,5,-7","w":147},"\u2026":{"d":"43,-93v15,-7,33,-15,55,-15v30,-2,40,26,40,52v0,34,-1,59,-39,57v-43,-3,-56,-41,-56,-94xm219,-93v15,-7,33,-15,55,-15v30,-2,40,26,40,52v0,34,-1,59,-39,57v-43,-3,-56,-41,-56,-94xm395,-93v15,-7,33,-15,55,-15v30,-2,40,26,40,52v0,34,-1,59,-39,57v-43,-3,-56,-41,-56,-94","w":528},"\u201c":{"d":"100,-824v0,62,38,161,-30,158v-50,-16,-53,-108,-58,-169v-5,-43,51,-63,81,-32xm288,-706v-58,0,-69,-70,-76,-128v-6,-55,43,-98,77,-53v7,8,16,21,17,33v-22,27,2,75,2,108v0,17,-3,40,-20,40","w":347},"\u201d":{"d":"100,-824v0,62,38,161,-30,158v-50,-16,-53,-108,-58,-169v-5,-43,51,-63,81,-32xm288,-706v-58,0,-69,-70,-76,-128v-6,-55,43,-98,77,-53v7,8,16,21,17,33v-22,27,2,75,2,108v0,17,-3,40,-20,40","w":347},"\u2019":{"d":"32,-660v75,-31,100,92,80,168v-6,20,-15,36,-28,48v-54,-45,-34,-130,-57,-209v0,-3,2,-5,5,-7","w":147},"\u2018":{"d":"32,-660v75,-31,100,92,80,168v-6,20,-15,36,-28,48v-54,-45,-34,-130,-57,-209v0,-3,2,-5,5,-7","w":147},"\u02c6":{"d":"76,-828v-34,0,-42,-48,-22,-76v42,-58,99,-121,156,-164v44,-33,75,11,96,36v40,48,83,107,98,177v-1,28,-4,26,-32,27v-45,-19,-61,-46,-78,-88v-14,-21,-31,-32,-61,-46v-94,1,-69,134,-157,134","w":428},"\u02dc":{"d":"513,-764v-6,73,-71,108,-141,116v-104,12,-99,-68,-183,-77v-63,-7,-44,63,-101,63v-30,-1,-29,-37,-27,-66v36,-56,94,-105,187,-80v47,13,45,68,112,68v70,0,58,-58,126,-51v9,7,21,18,27,27","w":544},"\u02c7":{"d":"86,-876v78,13,62,134,146,143v81,-19,82,-131,136,-179v21,-19,70,-21,57,19v-28,89,-99,171,-159,233v-38,39,-66,-6,-90,-28v-44,-41,-92,-94,-116,-152v0,-16,8,-39,26,-36","w":507},"\u02d8":{"d":"222,-798v63,-5,94,-68,118,-110v46,12,43,73,14,106v-33,38,-91,73,-165,54v-64,-16,-111,-57,-153,-112v9,-23,45,-31,72,-36v32,54,57,90,114,98","w":471},"\u02d9":{"d":"37,-573v15,-7,33,-15,55,-15v30,-2,40,26,40,52v0,34,-1,59,-39,57v-43,-3,-56,-41,-56,-94","w":176},"\u0160":{"d":"80,0v-43,3,-52,-25,-56,-64v-7,-78,88,-59,123,-29v100,-4,188,-36,231,-99v40,-59,-25,-104,-59,-138v-74,-75,-177,-143,-252,-217v-29,-62,-40,-163,3,-221v56,-75,155,-124,277,-127v61,-2,148,-12,147,55v-1,38,-5,43,-39,43v-28,0,-47,-5,-55,-30v-151,-8,-281,37,-281,176v0,160,167,189,261,268v45,38,91,79,91,156v0,178,-233,185,-391,227xm97,-1200v78,13,62,134,146,143v81,-19,82,-131,136,-179v21,-19,70,-21,57,19v-28,89,-99,171,-159,233v-38,39,-66,-6,-90,-28v-44,-41,-92,-94,-116,-152v0,-16,8,-39,26,-36","w":507},"\u0152":{"d":"308,25v-206,0,-270,-150,-270,-354v0,-175,71,-314,186,-383v42,-26,91,-39,148,-39v211,3,175,267,172,471r-7,152v-33,84,-36,147,-135,152v-24,0,-55,1,-94,1xm448,-288v0,-139,76,-383,-96,-383v-184,0,-234,182,-234,370v0,154,53,260,209,260v142,0,121,-113,121,-247xm517,9v-34,0,-41,-31,-39,-68r26,-509v2,-37,4,-68,7,-92v3,-24,5,-36,7,-39v67,-26,208,-40,292,-21v26,7,20,44,6,56v-48,39,-174,-7,-231,32r-14,213r304,-6v15,8,14,36,8,57v-77,39,-246,-14,-312,56v-14,66,-15,135,-13,213v119,37,244,-21,373,-13v26,-5,38,26,30,52v-3,8,-8,13,-16,15r-213,35v-38,5,-75,10,-112,14v-37,4,-71,5,-103,5","w":964},"\u2044":{"d":"106,0v-59,13,-114,-7,-90,-74v2,-3,5,-5,10,-6r332,-611r82,-189v28,-28,83,-7,66,40v-109,300,-318,510,-400,840","w":520},"\u0161":{"d":"254,-107v0,77,-73,108,-150,108v-50,0,-79,-39,-91,-81v52,8,154,20,160,-40v-29,-66,-95,-119,-123,-186v-42,-100,39,-190,142,-189v35,1,48,-1,49,36v2,79,-115,28,-109,114v8,109,122,126,122,238xm-19,-773v78,13,62,134,146,143v81,-19,82,-131,136,-179v21,-19,70,-21,57,19v-28,89,-99,171,-159,233v-38,39,-66,-6,-90,-28v-44,-41,-92,-94,-116,-152v0,-16,8,-39,26,-36","w":280},"\u0153":{"d":"220,1v-113,0,-202,-41,-207,-154v-4,-103,38,-196,107,-231v135,-69,230,75,268,182v11,32,15,61,14,86v-4,94,-88,117,-182,117xm217,-65v55,-1,109,-7,116,-62v10,-74,-41,-137,-83,-175v-54,-49,-107,13,-132,48v-18,25,-34,63,-26,101v-2,75,52,90,125,88xm611,14v-178,0,-294,-85,-294,-274v0,-163,292,-159,344,-39v-12,94,-125,97,-183,146v-56,85,101,82,161,114v17,9,19,43,2,49v-8,3,-18,4,-30,4xm393,-241v0,60,78,28,110,11v25,-14,55,-35,50,-71v-28,-31,-104,-25,-133,7v-12,14,-27,30,-27,53","w":676},"\u00a8":{"d":"49,-709v15,-7,33,-15,55,-15v30,-2,40,26,40,52v0,34,-1,59,-39,57v-43,-3,-56,-41,-56,-94xm225,-709v15,-7,33,-15,55,-15v30,-2,40,26,40,52v0,34,-1,59,-39,57v-43,-3,-56,-41,-56,-94","w":376},"\u00a1":{"d":"138,-764v22,0,45,-1,46,20v0,27,-13,48,-40,48v-28,-1,-41,-1,-41,-32v1,-31,4,-35,35,-36xm105,-525v39,-2,22,39,23,81r10,383v-1,29,-5,61,-35,61v-24,0,-25,-14,-32,-36v4,-158,-23,-290,-23,-444v0,-28,29,-44,57,-45","w":187},"\u00bf":{"d":"370,-950v26,0,43,14,43,40v0,41,-20,56,-62,56v-24,0,-25,-39,-26,-63v-1,-30,16,-32,45,-33xm326,-538v3,-46,28,-94,72,-94v25,0,37,20,37,60v-94,119,-243,200,-310,346v-12,27,-18,54,-18,83v0,52,68,53,120,54v123,5,150,-57,219,-108v22,9,26,15,26,40v0,109,-144,125,-255,125v-94,0,-183,-15,-183,-111v0,-135,96,-215,174,-287","w":507},"\u0178":{"d":"17,-840v-2,-33,-2,-59,35,-55v80,34,147,135,201,204r149,189v20,25,33,42,42,49v86,-129,101,-299,146,-467v30,-25,91,-6,82,33v-72,330,-189,652,-364,887v-15,10,-57,23,-60,-10v-5,-58,45,-105,68,-158v25,-58,57,-132,68,-208xm213,-1033v15,-7,33,-15,55,-15v30,-2,40,26,40,52v0,34,-1,59,-39,57v-43,-3,-56,-41,-56,-94xm389,-1033v15,-7,33,-15,55,-15v30,-2,40,26,40,52v0,34,-1,59,-39,57v-43,-3,-56,-41,-56,-94","w":697},"\u00c0":{"d":"515,-96v7,40,17,94,-27,97v-90,-47,-59,-230,-101,-334v-87,-2,-141,10,-200,40v-74,38,-59,173,-87,257v-8,23,-40,33,-61,30v-29,-5,-9,-44,-5,-66v9,-55,38,-101,33,-168v-8,-14,-41,-27,-41,-47v0,-66,85,-53,108,-100v58,-121,117,-270,133,-426v14,-16,56,-23,67,-3r106,396r187,0v15,12,19,49,0,60v-57,-4,-114,-2,-160,13v9,86,34,170,48,251xm220,-402v-8,21,-6,21,14,21v44,0,93,-15,124,-27v13,-72,-35,-151,-51,-219v-31,69,-58,153,-87,225xm224,-1099v-19,-54,24,-71,67,-53v26,47,70,90,96,136v25,22,19,80,-16,83v-10,1,-24,-3,-36,-19"},"\u00b4":{"d":"203,-820r-110,136v-28,34,-77,14,-67,-26v16,-64,81,-105,111,-159v39,-14,86,-3,66,49","w":228},"\u00c1":{"d":"515,-96v7,40,17,94,-27,97v-90,-47,-59,-230,-101,-334v-87,-2,-141,10,-200,40v-74,38,-59,173,-87,257v-8,23,-40,33,-61,30v-29,-5,-9,-44,-5,-66v9,-55,38,-101,33,-168v-8,-14,-41,-27,-41,-47v0,-66,85,-53,108,-100v58,-121,117,-270,133,-426v14,-16,56,-23,67,-3r106,396r187,0v15,12,19,49,0,60v-57,-4,-114,-2,-160,13v9,86,34,170,48,251xm220,-402v-8,21,-6,21,14,21v44,0,93,-15,124,-27v13,-72,-35,-151,-51,-219v-31,69,-58,153,-87,225xm410,-1144r-110,136v-28,34,-77,14,-67,-26v16,-64,81,-105,111,-159v39,-14,86,-3,66,49"},"\u00c2":{"d":"515,-96v7,40,17,94,-27,97v-90,-47,-59,-230,-101,-334v-87,-2,-141,10,-200,40v-74,38,-59,173,-87,257v-8,23,-40,33,-61,30v-29,-5,-9,-44,-5,-66v9,-55,38,-101,33,-168v-8,-14,-41,-27,-41,-47v0,-66,85,-53,108,-100v58,-121,117,-270,133,-426v14,-16,56,-23,67,-3r106,396r187,0v15,12,19,49,0,60v-57,-4,-114,-2,-160,13v9,86,34,170,48,251xm220,-402v-8,21,-6,21,14,21v44,0,93,-15,124,-27v13,-72,-35,-151,-51,-219v-31,69,-58,153,-87,225xm177,-920v-34,0,-42,-48,-22,-76v42,-58,99,-121,156,-164v44,-33,75,11,96,36v40,48,83,107,98,177v-1,28,-4,26,-32,27v-45,-19,-61,-46,-78,-88v-14,-21,-31,-32,-61,-46v-94,1,-69,134,-157,134"},"\u00c3":{"d":"515,-96v7,40,17,94,-27,97v-90,-47,-59,-230,-101,-334v-87,-2,-141,10,-200,40v-74,38,-59,173,-87,257v-8,23,-40,33,-61,30v-29,-5,-9,-44,-5,-66v9,-55,38,-101,33,-168v-8,-14,-41,-27,-41,-47v0,-66,85,-53,108,-100v58,-121,117,-270,133,-426v14,-16,56,-23,67,-3r106,396r187,0v15,12,19,49,0,60v-57,-4,-114,-2,-160,13v9,86,34,170,48,251xm220,-402v-8,21,-6,21,14,21v44,0,93,-15,124,-27v13,-72,-35,-151,-51,-219v-31,69,-58,153,-87,225xm546,-1088v-6,73,-71,108,-141,116v-104,12,-99,-68,-183,-77v-63,-7,-44,63,-101,63v-30,-1,-29,-37,-27,-66v36,-56,94,-105,187,-80v47,13,45,68,112,68v70,0,58,-58,126,-51v9,7,21,18,27,27"},"\u00c4":{"d":"515,-96v7,40,17,94,-27,97v-90,-47,-59,-230,-101,-334v-87,-2,-141,10,-200,40v-74,38,-59,173,-87,257v-8,23,-40,33,-61,30v-29,-5,-9,-44,-5,-66v9,-55,38,-101,33,-168v-8,-14,-41,-27,-41,-47v0,-66,85,-53,108,-100v58,-121,117,-270,133,-426v14,-16,56,-23,67,-3r106,396r187,0v15,12,19,49,0,60v-57,-4,-114,-2,-160,13v9,86,34,170,48,251xm220,-402v-8,21,-6,21,14,21v44,0,93,-15,124,-27v13,-72,-35,-151,-51,-219v-31,69,-58,153,-87,225xm184,-1033v15,-7,33,-15,55,-15v30,-2,40,26,40,52v0,34,-1,59,-39,57v-43,-3,-56,-41,-56,-94xm360,-1033v15,-7,33,-15,55,-15v30,-2,40,26,40,52v0,34,-1,59,-39,57v-43,-3,-56,-41,-56,-94"},"\u02da":{"d":"230,-619v-76,1,-147,-28,-122,-111v17,-57,93,-99,156,-60v37,24,77,63,77,117v0,49,-60,52,-111,54xm224,-668v24,-2,49,-5,48,-32v15,-30,-15,-57,-48,-52v-37,5,-50,13,-60,44v12,27,19,43,60,40","w":440},"\u00c5":{"d":"515,-96v7,40,17,94,-27,97v-90,-47,-59,-230,-101,-334v-87,-2,-141,10,-200,40v-74,38,-59,173,-87,257v-8,23,-40,33,-61,30v-29,-5,-9,-44,-5,-66v9,-55,38,-101,33,-168v-8,-14,-41,-27,-41,-47v0,-66,85,-53,108,-100v58,-121,117,-270,133,-426v14,-16,56,-23,67,-3r106,396r187,0v15,12,19,49,0,60v-57,-4,-114,-2,-160,13v9,86,34,170,48,251xm220,-402v-8,21,-6,21,14,21v44,0,93,-15,124,-27v13,-72,-35,-151,-51,-219v-31,69,-58,153,-87,225xm305,-803v-76,1,-147,-28,-122,-111v17,-57,93,-99,156,-60v37,24,77,63,77,117v0,49,-60,52,-111,54xm299,-852v24,-2,49,-5,48,-32v15,-30,-15,-57,-48,-52v-37,5,-50,13,-60,44v12,27,19,43,60,40"},"\u00c6":{"d":"521,-50v1,39,-78,85,-100,38v-35,-75,-7,-216,-33,-304v-87,-2,-141,10,-200,40v-74,38,-59,173,-87,257v-8,23,-40,34,-61,31v-29,-5,-9,-45,-5,-67v9,-55,38,-101,33,-168v-8,-14,-41,-27,-41,-47v0,-66,89,-52,108,-100v56,-145,189,-231,258,-361v14,-16,58,-24,67,-3v10,24,19,57,14,108v-19,198,1,388,47,576xm220,-386v-13,21,-2,21,23,22v47,1,105,-10,142,-19v27,-35,15,-108,20,-164v-89,20,-144,93,-185,161xm474,1v-34,0,-41,-31,-39,-68r25,-509v2,-37,5,-68,8,-92v3,-24,5,-36,7,-39v67,-26,209,-40,293,-21v27,6,18,45,4,56v-48,38,-173,-7,-230,32r-14,213r304,-6v15,8,14,36,8,57v-77,39,-246,-14,-312,56v-14,66,-15,135,-13,213v119,37,244,-21,373,-13v26,-5,38,26,30,52v-3,8,-8,13,-16,15r-212,35v-38,5,-75,10,-112,14v-37,4,-72,5,-104,5","w":941},"\u00b8":{"d":"325,229v-5,77,-73,108,-150,108v-50,0,-79,-39,-91,-81v52,8,154,20,160,-40v-25,-59,-98,-83,-133,-132v-11,-16,-16,-34,-12,-57v-13,-62,-3,-124,53,-99v38,17,64,76,39,127v5,33,44,41,70,59v34,24,67,52,64,115","w":280},"\u00c7":{"d":"642,-41v0,38,-44,39,-82,41v-223,10,-428,8,-502,-126v-95,-173,19,-406,116,-510v40,-43,91,-79,166,-84v49,-3,39,60,20,78v-29,29,-88,28,-120,55v-82,70,-143,176,-146,320v-5,237,280,209,506,200v29,-1,42,3,42,26xm474,256v-5,77,-73,108,-150,108v-50,0,-79,-39,-91,-81v52,8,154,20,160,-40v-25,-59,-98,-83,-133,-132v-11,-16,-16,-34,-12,-57v-13,-62,-3,-124,53,-99v38,17,64,76,39,127v5,33,44,41,70,59v34,24,67,52,64,115","w":667},"\u00c8":{"d":"66,1v-34,0,-41,-31,-39,-68r25,-509v2,-37,5,-68,8,-92v3,-24,5,-36,7,-39v67,-26,209,-40,293,-21v27,6,18,45,4,56v-48,38,-173,-7,-230,32r-14,213r304,-6v15,8,14,36,8,57v-77,39,-247,-14,-312,56v-14,66,-15,135,-13,213v119,37,244,-21,373,-13v26,-5,38,26,30,52v-3,8,-8,13,-16,15r-212,35v-38,5,-75,10,-112,14v-37,4,-72,5,-104,5xm175,-1151v-19,-54,24,-71,67,-53v26,47,70,90,96,136v25,22,19,80,-16,83v-10,1,-24,-3,-36,-19","w":533},"\u00c9":{"d":"66,1v-34,0,-41,-31,-39,-68r25,-509v2,-37,5,-68,8,-92v3,-24,5,-36,7,-39v67,-26,209,-40,293,-21v27,6,18,45,4,56v-48,38,-173,-7,-230,32r-14,213r304,-6v15,8,14,36,8,57v-77,39,-247,-14,-312,56v-14,66,-15,135,-13,213v119,37,244,-21,373,-13v26,-5,38,26,30,52v-3,8,-8,13,-16,15r-212,35v-38,5,-75,10,-112,14v-37,4,-72,5,-104,5xm357,-1144r-110,136v-28,34,-77,14,-67,-26v16,-64,81,-105,111,-159v39,-14,86,-3,66,49","w":533},"\u00ca":{"d":"66,1v-34,0,-41,-31,-39,-68r25,-509v2,-37,5,-68,8,-92v3,-24,5,-36,7,-39v67,-26,209,-40,293,-21v27,6,18,45,4,56v-48,38,-173,-7,-230,32r-14,213r304,-6v15,8,14,36,8,57v-77,39,-247,-14,-312,56v-14,66,-15,135,-13,213v119,37,244,-21,373,-13v26,-5,38,26,30,52v-3,8,-8,13,-16,15r-212,35v-38,5,-75,10,-112,14v-37,4,-72,5,-104,5xm87,-821v-34,0,-42,-48,-22,-76v42,-58,99,-121,156,-164v44,-33,75,11,96,36v40,48,83,107,98,177v-1,28,-4,26,-32,27v-45,-19,-61,-46,-78,-88v-14,-21,-31,-32,-61,-46v-94,1,-69,134,-157,134","w":533},"\u00cb":{"d":"66,1v-34,0,-41,-31,-39,-68r25,-509v2,-37,5,-68,8,-92v3,-24,5,-36,7,-39v67,-26,209,-40,293,-21v27,6,18,45,4,56v-48,38,-173,-7,-230,32r-14,213r304,-6v15,8,14,36,8,57v-77,39,-247,-14,-312,56v-14,66,-15,135,-13,213v119,37,244,-21,373,-13v26,-5,38,26,30,52v-3,8,-8,13,-16,15r-212,35v-38,5,-75,10,-112,14v-37,4,-72,5,-104,5xm131,-1033v15,-7,33,-15,55,-15v30,-2,40,26,40,52v0,34,-1,59,-39,57v-43,-3,-56,-41,-56,-94xm307,-1033v15,-7,33,-15,55,-15v30,-2,40,26,40,52v0,34,-1,59,-39,57v-43,-3,-56,-41,-56,-94","w":533},"\u00cc":{"d":"80,1v-15,0,-23,-1,-27,-14r2,-174v1,-182,-7,-358,-42,-508v-1,-22,18,-41,40,-40v30,9,40,56,48,97v34,173,45,383,45,585v0,33,-33,54,-66,54xm-10,-1151v-19,-54,24,-71,67,-53v26,47,70,90,96,136v25,22,19,80,-16,83v-10,1,-24,-3,-36,-19","w":160},"\u00cd":{"d":"80,1v-15,0,-23,-1,-27,-14r2,-174v1,-182,-7,-358,-42,-508v-1,-22,18,-41,40,-40v30,9,40,56,48,97v34,173,45,383,45,585v0,33,-33,54,-66,54xm172,-1144r-110,136v-28,34,-77,14,-67,-26v16,-64,81,-105,111,-159v39,-14,86,-3,66,49","w":160},"\u00ce":{"d":"80,1v-15,0,-23,-1,-27,-14r2,-174v1,-182,-7,-358,-42,-508v-1,-22,18,-41,40,-40v30,9,40,56,48,97v34,173,45,383,45,585v0,33,-33,54,-66,54xm-58,-872v-34,0,-42,-48,-22,-76v42,-58,99,-121,156,-164v44,-33,75,11,96,36v40,48,83,107,98,177v-1,28,-4,26,-32,27v-45,-19,-61,-46,-78,-88v-14,-21,-31,-32,-61,-46v-94,1,-69,134,-157,134","w":160},"\u00cf":{"d":"80,1v-15,0,-23,-1,-27,-14r2,-174v1,-182,-7,-358,-42,-508v-1,-22,18,-41,40,-40v30,9,40,56,48,97v34,173,45,383,45,585v0,33,-33,54,-66,54xm-54,-1033v15,-7,33,-15,55,-15v30,-2,40,26,40,52v0,34,-1,59,-39,57v-43,-3,-56,-41,-56,-94xm122,-1033v15,-7,33,-15,55,-15v30,-2,40,26,40,52v0,34,-1,59,-39,57v-43,-3,-56,-41,-56,-94","w":160},"\u00d0":{"d":"128,43v-32,7,-43,-9,-43,-40v0,-56,55,-33,70,-67r0,-223r-137,-5v-10,-9,-27,-17,-28,-34v-1,-20,19,-46,41,-46r124,0v-5,-103,1,-206,-59,-254v-32,1,-43,10,-61,29v-13,-8,-30,-27,-28,-47v4,-41,61,-40,107,-40v264,0,529,24,618,212v33,70,32,175,-9,238v-113,174,-361,229,-595,277xm248,-77v191,6,333,-75,410,-195v30,-47,48,-115,8,-163v-94,-113,-282,-155,-474,-169v0,75,16,158,20,232v51,2,111,-5,158,2v16,13,-2,28,-18,37v-36,20,-77,33,-131,49","w":773},"\u00d1":{"d":"13,-653v1,-38,7,-69,47,-68v48,1,61,26,73,68r367,495v15,15,14,27,33,25r14,-185v14,-149,-50,-241,-54,-375v6,-31,38,-47,71,-51r34,248r18,326v-1,47,38,174,-42,158v-168,-34,-223,-215,-310,-342v-46,-67,-93,-137,-158,-179v-38,136,33,349,-17,489v-9,25,-22,42,-47,45v-10,-6,-22,-18,-29,-28r0,-626xm546,-1088v-6,73,-71,108,-141,116v-104,12,-99,-68,-183,-77v-63,-7,-44,63,-101,63v-30,-1,-29,-37,-27,-66v36,-56,94,-105,187,-80v47,13,45,68,112,68v70,0,58,-58,126,-51v9,7,21,18,27,27"},"\u00d2":{"d":"296,1v-206,-2,-270,-150,-270,-354v0,-175,72,-313,186,-383v66,-40,175,-59,246,-14v155,97,221,311,209,563v-44,146,-181,190,-371,188xm315,-65v158,-7,287,-52,287,-211v0,-174,-70,-324,-183,-398v-75,-49,-180,-4,-221,44v-116,138,-165,577,117,565xm262,-1151v-19,-54,24,-71,67,-53v26,47,70,90,96,136v25,22,19,80,-16,83v-10,1,-24,-3,-36,-19","w":707},"\u00d3":{"d":"296,1v-206,-2,-270,-150,-270,-354v0,-175,72,-313,186,-383v66,-40,175,-59,246,-14v155,97,221,311,209,563v-44,146,-181,190,-371,188xm315,-65v158,-7,287,-52,287,-211v0,-174,-70,-324,-183,-398v-75,-49,-180,-4,-221,44v-116,138,-165,577,117,565xm444,-1144r-110,136v-28,34,-77,14,-67,-26v16,-64,81,-105,111,-159v39,-14,86,-3,66,49","w":707},"\u00d4":{"d":"296,1v-206,-2,-270,-150,-270,-354v0,-175,72,-313,186,-383v66,-40,175,-59,246,-14v155,97,221,311,209,563v-44,146,-181,190,-371,188xm315,-65v158,-7,287,-52,287,-211v0,-174,-70,-324,-183,-398v-75,-49,-180,-4,-221,44v-116,138,-165,577,117,565xm206,-1152v-34,0,-42,-48,-22,-76v42,-58,99,-121,156,-164v44,-33,75,11,96,36v40,48,83,107,98,177v-1,28,-4,26,-32,27v-45,-19,-61,-46,-78,-88v-14,-21,-31,-32,-61,-46v-94,1,-69,134,-157,134","w":707},"\u00d5":{"d":"296,1v-206,-2,-270,-150,-270,-354v0,-175,72,-313,186,-383v66,-40,175,-59,246,-14v155,97,221,311,209,563v-44,146,-181,190,-371,188xm315,-65v158,-7,287,-52,287,-211v0,-174,-70,-324,-183,-398v-75,-49,-180,-4,-221,44v-116,138,-165,577,117,565xm580,-1088v-6,73,-71,108,-141,116v-104,12,-99,-68,-183,-77v-63,-7,-44,63,-101,63v-30,-1,-29,-37,-27,-66v36,-56,94,-105,187,-80v47,13,45,68,112,68v70,0,58,-58,126,-51v9,7,21,18,27,27","w":707},"\u00d7":{"d":"137,-353v-4,-74,-100,-75,-108,-146v-10,-23,-2,-57,22,-55v7,1,14,7,21,18r132,100v27,-38,58,-63,96,-88v87,-7,36,55,9,82v-19,19,-43,45,-57,66v49,79,119,128,177,197v27,33,-6,67,-43,47v-65,-35,-118,-92,-170,-140v-38,40,-74,113,-107,160v-35,-1,-55,2,-67,-27v30,-62,82,-136,95,-214","w":453},"\u00d6":{"d":"296,1v-206,-2,-270,-150,-270,-354v0,-175,72,-313,186,-383v66,-40,175,-59,246,-14v155,97,221,311,209,563v-44,146,-181,190,-371,188xm315,-65v158,-7,287,-52,287,-211v0,-174,-70,-324,-183,-398v-75,-49,-180,-4,-221,44v-116,138,-165,577,117,565xm218,-1033v15,-7,33,-15,55,-15v30,-2,40,26,40,52v0,34,-1,59,-39,57v-43,-3,-56,-41,-56,-94xm394,-1033v15,-7,33,-15,55,-15v30,-2,40,26,40,52v0,34,-1,59,-39,57v-43,-3,-56,-41,-56,-94","w":707},"\u00d8":{"d":"296,1v-206,-2,-270,-150,-270,-354v0,-175,72,-313,186,-383v66,-40,175,-59,246,-14v155,97,221,311,209,563v-44,146,-181,190,-371,188xm315,-65v158,-7,287,-52,287,-211v0,-174,-70,-324,-183,-398v-75,-49,-180,-4,-221,44v-116,138,-165,577,117,565xm196,47v-59,13,-114,-7,-90,-74v2,-3,5,-5,10,-6r332,-611r82,-189v28,-28,83,-7,66,40v-109,300,-318,510,-400,840","w":707},"\u00d9":{"d":"714,-25v-90,0,-82,-116,-87,-202v-122,97,-229,220,-435,228v-205,8,-172,-247,-160,-435v7,-102,21,-219,11,-322v20,-21,26,-28,60,-28v20,0,33,3,33,25v-2,145,-30,318,-30,463v0,97,-10,229,88,229v185,0,315,-116,386,-248v33,-62,20,-150,21,-237r1,-155v-6,-42,41,-73,56,-23v57,189,76,444,90,678v1,23,-12,27,-34,27xm302,-1151v-19,-54,24,-71,67,-53v26,47,70,90,96,136v25,22,19,80,-16,83v-10,1,-24,-3,-36,-19","w":787},"\u00da":{"d":"714,-25v-90,0,-82,-116,-87,-202v-122,97,-229,220,-435,228v-205,8,-172,-247,-160,-435v7,-102,21,-219,11,-322v20,-21,26,-28,60,-28v20,0,33,3,33,25v-2,145,-30,318,-30,463v0,97,-10,229,88,229v185,0,315,-116,386,-248v33,-62,20,-150,21,-237r1,-155v-6,-42,41,-73,56,-23v57,189,76,444,90,678v1,23,-12,27,-34,27xm484,-1144r-110,136v-28,34,-77,14,-67,-26v16,-64,81,-105,111,-159v39,-14,86,-3,66,49","w":787},"\u00db":{"d":"714,-25v-90,0,-82,-116,-87,-202v-122,97,-229,220,-435,228v-205,8,-172,-247,-160,-435v7,-102,21,-219,11,-322v20,-21,26,-28,60,-28v20,0,33,3,33,25v-2,145,-30,318,-30,463v0,97,-10,229,88,229v185,0,315,-116,386,-248v33,-62,20,-150,21,-237r1,-155v-6,-42,41,-73,56,-23v57,189,76,444,90,678v1,23,-12,27,-34,27xm230,-952v-34,0,-42,-48,-22,-76v42,-58,99,-121,156,-164v44,-33,75,11,96,36v40,48,83,107,98,177v-1,28,-4,26,-32,27v-45,-19,-61,-46,-78,-88v-14,-21,-31,-32,-61,-46v-94,1,-69,134,-157,134","w":787},"\u00dc":{"d":"714,-25v-90,0,-82,-116,-87,-202v-122,97,-229,220,-435,228v-205,8,-172,-247,-160,-435v7,-102,21,-219,11,-322v20,-21,26,-28,60,-28v20,0,33,3,33,25v-2,145,-30,318,-30,463v0,97,-10,229,88,229v185,0,315,-116,386,-248v33,-62,20,-150,21,-237r1,-155v-6,-42,41,-73,56,-23v57,189,76,444,90,678v1,23,-12,27,-34,27xm258,-1033v15,-7,33,-15,55,-15v30,-2,40,26,40,52v0,34,-1,59,-39,57v-43,-3,-56,-41,-56,-94xm434,-1033v15,-7,33,-15,55,-15v30,-2,40,26,40,52v0,34,-1,59,-39,57v-43,-3,-56,-41,-56,-94","w":787},"\u00dd":{"d":"17,-840v-2,-33,-2,-59,35,-55v80,34,147,135,201,204r149,189v20,25,33,42,42,49v86,-129,101,-299,146,-467v30,-25,91,-6,82,33v-72,330,-189,652,-364,887v-15,10,-57,23,-60,-10v-5,-58,45,-105,68,-158v25,-58,57,-132,68,-208xm439,-1144r-110,136v-28,34,-77,14,-67,-26v16,-64,81,-105,111,-159v39,-14,86,-3,66,49","w":697},"\u00e0":{"d":"151,-14v-50,21,-143,30,-139,-39v9,-150,174,-160,240,-255v12,-18,20,-37,20,-61v-58,0,-96,0,-133,7v-27,6,-17,29,-36,44v-8,10,-55,44,-67,10v-41,-106,94,-126,204,-135v102,-8,132,79,162,157v27,70,40,159,59,229v-53,60,-75,-50,-107,-81v-7,-8,-14,-10,-21,-9v-51,50,-110,104,-182,133xm293,-227v-49,23,-114,60,-151,97v-18,19,-23,25,-22,50v58,-26,125,-61,161,-112v8,-12,12,-23,12,-35xm148,-827v-19,-54,24,-71,67,-53v26,47,70,90,96,136v25,22,19,80,-16,83v-10,1,-24,-3,-36,-19","w":480},"\u00e1":{"d":"151,-14v-50,21,-143,30,-139,-39v9,-150,174,-160,240,-255v12,-18,20,-37,20,-61v-58,0,-96,0,-133,7v-27,6,-17,29,-36,44v-8,10,-55,44,-67,10v-41,-106,94,-126,204,-135v102,-8,132,79,162,157v27,70,40,159,59,229v-53,60,-75,-50,-107,-81v-7,-8,-14,-10,-21,-9v-51,50,-110,104,-182,133xm293,-227v-49,23,-114,60,-151,97v-18,19,-23,25,-22,50v58,-26,125,-61,161,-112v8,-12,12,-23,12,-35xm330,-820r-110,136v-28,34,-77,14,-67,-26v16,-64,81,-105,111,-159v39,-14,86,-3,66,49","w":480},"\u00e2":{"d":"151,-14v-50,21,-143,30,-139,-39v9,-150,174,-160,240,-255v12,-18,20,-37,20,-61v-58,0,-96,0,-133,7v-27,6,-17,29,-36,44v-8,10,-55,44,-67,10v-41,-106,94,-126,204,-135v102,-8,132,79,162,157v27,70,40,159,59,229v-53,60,-75,-50,-107,-81v-7,-8,-14,-10,-21,-9v-51,50,-110,104,-182,133xm293,-227v-49,23,-114,60,-151,97v-18,19,-23,25,-22,50v58,-26,125,-61,161,-112v8,-12,12,-23,12,-35xm89,-581v-34,0,-42,-48,-22,-76v42,-58,99,-121,156,-164v44,-33,75,11,96,36v40,48,83,107,98,177v-1,28,-4,26,-32,27v-45,-19,-61,-46,-78,-88v-14,-21,-31,-32,-61,-46v-94,1,-69,134,-157,134","w":480},"\u00e3":{"d":"151,-14v-50,21,-143,30,-139,-39v9,-150,174,-160,240,-255v12,-18,20,-37,20,-61v-58,0,-96,0,-133,7v-27,6,-17,29,-36,44v-8,10,-55,44,-67,10v-41,-106,94,-126,204,-135v102,-8,132,79,162,157v27,70,40,159,59,229v-53,60,-75,-50,-107,-81v-7,-8,-14,-10,-21,-9v-51,50,-110,104,-182,133xm293,-227v-49,23,-114,60,-151,97v-18,19,-23,25,-22,50v58,-26,125,-61,161,-112v8,-12,12,-23,12,-35xm468,-764v-6,73,-71,108,-141,116v-104,12,-99,-68,-183,-77v-63,-7,-44,63,-101,63v-30,-1,-29,-37,-27,-66v36,-56,94,-105,187,-80v47,13,45,68,112,68v70,0,58,-58,126,-51v9,7,21,18,27,27","w":480},"\u00e4":{"d":"151,-14v-50,21,-143,30,-139,-39v9,-150,174,-160,240,-255v12,-18,20,-37,20,-61v-58,0,-96,0,-133,7v-27,6,-17,29,-36,44v-8,10,-55,44,-67,10v-41,-106,94,-126,204,-135v102,-8,132,79,162,157v27,70,40,159,59,229v-53,60,-75,-50,-107,-81v-7,-8,-14,-10,-21,-9v-51,50,-110,104,-182,133xm293,-227v-49,23,-114,60,-151,97v-18,19,-23,25,-22,50v58,-26,125,-61,161,-112v8,-12,12,-23,12,-35xm104,-709v15,-7,33,-15,55,-15v30,-2,40,26,40,52v0,34,-1,59,-39,57v-43,-3,-56,-41,-56,-94xm280,-709v15,-7,33,-15,55,-15v30,-2,40,26,40,52v0,34,-1,59,-39,57v-43,-3,-56,-41,-56,-94","w":480},"\u00e5":{"d":"151,-14v-50,21,-143,30,-139,-39v9,-150,174,-160,240,-255v12,-18,20,-37,20,-61v-58,0,-96,0,-133,7v-27,6,-17,29,-36,44v-8,10,-55,44,-67,10v-41,-106,94,-126,204,-135v102,-8,132,79,162,157v27,70,40,159,59,229v-53,60,-75,-50,-107,-81v-7,-8,-14,-10,-21,-9v-51,50,-110,104,-182,133xm293,-227v-49,23,-114,60,-151,97v-18,19,-23,25,-22,50v58,-26,125,-61,161,-112v8,-12,12,-23,12,-35xm222,-436v-76,1,-147,-28,-122,-111v17,-57,93,-99,156,-60v37,24,77,63,77,117v0,49,-60,52,-111,54xm216,-485v24,-2,49,-5,48,-32v15,-30,-15,-57,-48,-52v-37,5,-50,13,-60,44v12,27,19,43,60,40","w":480},"\u00e6":{"d":"151,-14v-50,21,-143,30,-139,-39v9,-150,174,-160,240,-255v12,-18,20,-37,20,-61v-58,0,-96,0,-133,7v-27,6,-17,29,-36,44v-8,10,-55,44,-67,10v-41,-106,94,-126,204,-135v102,-8,132,79,162,157v27,70,40,159,59,229v-53,60,-75,-50,-107,-81v-7,-8,-14,-10,-21,-9v-51,50,-110,104,-182,133xm293,-227v-49,23,-114,60,-151,97v-18,19,-23,25,-22,50v58,-26,125,-61,161,-112v8,-12,12,-23,12,-35xm631,-5v-178,0,-294,-85,-294,-274v0,-163,292,-159,344,-39v-12,94,-125,97,-183,146v-56,85,101,82,161,114v17,9,19,43,2,49v-8,3,-18,4,-30,4xm413,-260v0,60,78,28,110,11v25,-14,55,-35,50,-71v-28,-31,-104,-25,-133,7v-12,14,-27,30,-27,53","w":704},"\u00e7":{"d":"464,-52v-135,56,-442,113,-438,-95v2,-110,60,-190,136,-231v28,-15,59,-23,93,-23v40,0,74,35,38,57v-74,45,-187,58,-187,175v0,77,28,103,105,104v79,0,137,-29,216,-30v24,0,55,-3,55,22v0,7,-5,16,-18,21xm410,268v-5,77,-73,108,-150,108v-50,0,-79,-39,-91,-81v52,8,154,20,160,-40v-25,-59,-98,-83,-133,-132v-11,-16,-16,-34,-12,-57v-13,-62,-3,-124,53,-99v38,17,64,76,39,127v5,33,44,41,70,59v34,24,67,52,64,115","w":507},"\u00e8":{"d":"311,-5v-178,0,-294,-85,-294,-274v0,-163,292,-159,344,-39v-12,94,-125,97,-183,146v-56,85,101,82,161,114v17,9,19,43,2,49v-8,3,-18,4,-30,4xm93,-260v0,60,78,28,110,11v25,-14,55,-35,50,-71v-28,-31,-104,-25,-133,7v-12,14,-27,30,-27,53xm128,-680v-19,-54,24,-71,67,-53v26,47,70,90,96,136v25,22,19,80,-16,83v-10,1,-24,-3,-36,-19","w":384},"\u00e9":{"d":"311,-5v-178,0,-294,-85,-294,-274v0,-163,292,-159,344,-39v-12,94,-125,97,-183,146v-56,85,101,82,161,114v17,9,19,43,2,49v-8,3,-18,4,-30,4xm93,-260v0,60,78,28,110,11v25,-14,55,-35,50,-71v-28,-31,-104,-25,-133,7v-12,14,-27,30,-27,53xm270,-705r-110,136v-28,34,-77,14,-67,-26v16,-64,81,-105,111,-159v39,-14,86,-3,66,49","w":384},"\u00ea":{"d":"311,-5v-178,0,-294,-85,-294,-274v0,-163,292,-159,344,-39v-12,94,-125,97,-183,146v-56,85,101,82,161,114v17,9,19,43,2,49v-8,3,-18,4,-30,4xm93,-260v0,60,78,28,110,11v25,-14,55,-35,50,-71v-28,-31,-104,-25,-133,7v-12,14,-27,30,-27,53xm58,-493v-34,0,-42,-48,-22,-76v42,-58,99,-121,156,-164v44,-33,75,11,96,36v40,48,83,107,98,177v-1,28,-4,26,-32,27v-45,-19,-61,-46,-78,-88v-14,-21,-31,-32,-61,-46v-94,1,-69,134,-157,134","w":384},"\u00eb":{"d":"311,-5v-178,0,-294,-85,-294,-274v0,-163,292,-159,344,-39v-12,94,-125,97,-183,146v-56,85,101,82,161,114v17,9,19,43,2,49v-8,3,-18,4,-30,4xm93,-260v0,60,78,28,110,11v25,-14,55,-35,50,-71v-28,-31,-104,-25,-133,7v-12,14,-27,30,-27,53xm52,-598v15,-7,33,-15,55,-15v30,-2,40,26,40,52v0,34,-1,59,-39,57v-43,-3,-56,-41,-56,-94xm228,-598v15,-7,33,-15,55,-15v30,-2,40,26,40,52v0,34,-1,59,-39,57v-43,-3,-56,-41,-56,-94","w":384},"\u00ec":{"d":"188,-33v-14,50,-110,35,-128,1v-18,-69,-20,-176,-21,-264v0,-42,2,-90,13,-116r60,0r1,305v2,46,73,28,75,74xm10,-683v-19,-54,24,-71,67,-53v26,47,70,90,96,136v25,22,20,80,-15,83v-10,1,-25,-3,-37,-19","w":187},"\u00ed":{"d":"52,-412v-26,103,-11,277,8,380v13,15,38,34,66,32v26,-2,62,-6,62,-33v0,-46,-75,-28,-75,-74r-1,-305r-60,0xm168,-720r-110,136v-28,34,-76,14,-66,-26v16,-64,80,-105,110,-159v39,-14,86,-3,66,49","w":187},"\u00ee":{"d":"188,-33v-14,50,-110,35,-128,1v-18,-69,-20,-176,-21,-264v0,-42,2,-90,13,-116r60,0r1,305v2,46,73,28,75,74xm-53,-488v-34,0,-43,-48,-23,-76v42,-58,101,-121,158,-164v44,-33,74,11,95,36v40,48,83,107,98,177v-1,28,-4,26,-32,27v-76,-26,-60,-111,-139,-134v-94,1,-69,134,-157,134","w":187},"\u00ef":{"d":"188,-33v-14,50,-110,35,-128,1v-18,-69,-20,-176,-21,-264v0,-42,2,-90,13,-116r60,0r1,305v2,46,73,28,75,74xm-42,-709v15,-7,33,-15,55,-15v30,-2,40,26,40,52v0,34,-1,59,-39,57v-43,-3,-56,-41,-56,-94xm134,-709v15,-7,33,-15,55,-15v30,-2,40,26,40,52v0,34,-1,59,-39,57v-43,-3,-56,-41,-56,-94","w":187},"\u00f1":{"d":"280,-262v-53,-35,-170,-27,-166,55v4,66,30,110,42,167v-18,18,-30,47,-66,37v-9,-3,-18,-11,-28,-24r-21,-137v-9,-47,-19,-94,-37,-132v71,-69,259,-100,341,-8v61,69,116,156,122,277v-88,-16,-92,-129,-141,-188v-15,-17,-28,-34,-46,-47xm452,-629v-6,73,-71,108,-141,116v-104,12,-99,-68,-183,-77v-63,-7,-44,63,-101,63v-30,-1,-29,-37,-27,-66v36,-56,94,-105,187,-80v47,13,45,68,112,68v70,0,58,-58,126,-51v9,7,21,18,27,27","w":489},"\u00f2":{"d":"220,1v-113,0,-202,-41,-207,-154v-4,-103,38,-196,107,-231v135,-69,230,75,268,182v11,32,15,61,14,86v-4,94,-88,117,-182,117xm217,-65v55,-1,109,-7,116,-62v10,-74,-41,-137,-83,-175v-54,-49,-107,13,-132,48v-18,25,-34,63,-26,101v-2,75,52,90,125,88xm116,-656v-19,-54,24,-71,67,-53v26,47,70,90,96,136v25,22,19,80,-16,83v-10,1,-24,-3,-36,-19","w":440},"\u00f3":{"d":"220,1v-113,0,-202,-41,-207,-154v-4,-103,38,-196,107,-231v135,-69,230,75,268,182v11,32,15,61,14,86v-4,94,-88,117,-182,117xm217,-65v55,-1,109,-7,116,-62v10,-74,-41,-137,-83,-175v-54,-49,-107,13,-132,48v-18,25,-34,63,-26,101v-2,75,52,90,125,88xm294,-605r-110,136v-28,34,-77,14,-67,-26v16,-64,81,-105,111,-159v39,-14,86,-3,66,49","w":440},"\u00f4":{"d":"220,1v-113,0,-202,-41,-207,-154v-4,-103,38,-196,107,-231v135,-69,230,75,268,182v11,32,15,61,14,86v-4,94,-88,117,-182,117xm217,-65v55,-1,109,-7,116,-62v10,-74,-41,-137,-83,-175v-54,-49,-107,13,-132,48v-18,25,-34,63,-26,101v-2,75,52,90,125,88xm50,-509v-34,0,-42,-48,-22,-76v42,-58,99,-121,156,-164v44,-33,75,11,96,36v40,48,83,107,98,177v-1,28,-4,26,-32,27v-45,-19,-61,-46,-78,-88v-14,-21,-31,-32,-61,-46v-94,1,-69,134,-157,134","w":440},"\u00f5":{"d":"220,1v-113,0,-202,-41,-207,-154v-4,-103,38,-196,107,-231v135,-69,230,75,268,182v11,32,15,61,14,86v-4,94,-88,117,-182,117xm217,-65v55,-1,109,-7,116,-62v10,-74,-41,-137,-83,-175v-54,-49,-107,13,-132,48v-18,25,-34,63,-26,101v-2,75,52,90,125,88xm456,-681v-6,73,-71,108,-141,116v-104,12,-99,-68,-183,-77v-63,-7,-44,63,-101,63v-30,-1,-29,-37,-27,-66v36,-56,94,-105,187,-80v47,13,45,68,112,68v70,0,58,-58,126,-51v9,7,21,18,27,27","w":440},"\u00f6":{"d":"220,1v-113,0,-202,-41,-207,-154v-4,-103,38,-196,107,-231v135,-69,230,75,268,182v11,32,15,61,14,86v-4,94,-88,117,-182,117xm217,-65v55,-1,109,-7,116,-62v10,-74,-41,-137,-83,-175v-54,-49,-107,13,-132,48v-18,25,-34,63,-26,101v-2,75,52,90,125,88xm64,-606v15,-7,33,-15,55,-15v30,-2,40,26,40,52v0,34,-1,59,-39,57v-43,-3,-56,-41,-56,-94xm240,-606v15,-7,33,-15,55,-15v30,-2,40,26,40,52v0,34,-1,59,-39,57v-43,-3,-56,-41,-56,-94","w":440},"\u00f9":{"d":"191,1v-168,0,-170,-178,-164,-348v1,-16,25,-14,41,-14v27,1,52,5,52,33v1,35,-14,59,-14,95v1,93,20,170,114,168v110,-2,183,-62,194,-162v4,-38,-27,-62,-28,-100v-1,-30,3,-52,34,-48v52,6,71,71,74,122v11,177,-131,254,-303,254xm188,-660v-19,-54,24,-71,67,-53v26,47,70,90,96,136v25,22,19,80,-16,83v-10,1,-24,-3,-36,-19","w":520},"\u00f8":{"d":"220,1v-113,0,-202,-41,-207,-154v-4,-103,38,-196,107,-231v135,-69,230,75,268,182v11,32,15,61,14,86v-4,94,-88,117,-182,117xm217,-65v55,-1,109,-7,116,-62v10,-74,-41,-137,-83,-175v-54,-49,-107,13,-132,48v-18,25,-34,63,-26,101v-2,75,52,90,125,88xm83,59v-46,7,-89,-4,-71,-41v2,-2,4,-3,8,-4r259,-341r64,-106v22,-16,64,-4,51,22v-85,168,-248,286,-311,470","w":440},"\u00fa":{"d":"191,1v-168,0,-170,-178,-164,-348v1,-16,25,-14,41,-14v27,1,52,5,52,33v1,35,-14,59,-14,95v1,93,20,170,114,168v110,-2,183,-62,194,-162v4,-38,-27,-62,-28,-100v-1,-30,3,-52,34,-48v52,6,71,71,74,122v11,177,-131,254,-303,254xm338,-669r-110,136v-28,34,-77,14,-67,-26v16,-64,81,-105,111,-159v39,-14,86,-3,66,49","w":520},"\u00fb":{"d":"191,1v-168,0,-170,-178,-164,-348v1,-16,25,-14,41,-14v27,1,52,5,52,33v1,35,-14,59,-14,95v1,93,20,170,114,168v110,-2,183,-62,194,-162v4,-38,-27,-62,-28,-100v-1,-30,3,-52,34,-48v52,6,71,71,74,122v11,177,-131,254,-303,254xm129,-501v-34,0,-42,-48,-22,-76v42,-58,99,-121,156,-164v44,-33,75,11,96,36v40,48,83,107,98,177v-1,28,-4,26,-32,27v-45,-19,-61,-46,-78,-88v-14,-21,-31,-32,-61,-46v-94,1,-69,134,-157,134","w":520},"\u00fc":{"d":"191,1v-168,0,-170,-178,-164,-348v1,-16,25,-14,41,-14v27,1,52,5,52,33v1,35,-14,59,-14,95v1,93,20,170,114,168v110,-2,183,-62,194,-162v4,-38,-27,-62,-28,-100v-1,-30,3,-52,34,-48v52,6,71,71,74,122v11,177,-131,254,-303,254xm124,-709v15,-7,33,-15,55,-15v30,-2,40,26,40,52v0,34,-1,59,-39,57v-43,-3,-56,-41,-56,-94xm300,-709v15,-7,33,-15,55,-15v30,-2,40,26,40,52v0,34,-1,59,-39,57v-43,-3,-56,-41,-56,-94","w":520},"\u00fd":{"d":"181,710v-79,-1,-117,-75,-100,-155v2,-4,6,-7,11,-8v50,22,21,110,100,95v236,-45,292,-323,269,-610v-4,-47,-13,-89,-23,-125v-100,54,-286,91,-356,-17v-36,-56,-59,-132,-60,-230v8,-17,52,-21,58,6v24,99,33,231,161,229v84,-1,192,-13,168,-114v-9,-38,-18,-80,-21,-121v-1,-28,19,-27,44,-28v59,16,65,119,73,182r40,326v-9,244,-82,450,-245,542v-35,20,-75,28,-119,28xm334,-621r-110,136v-28,34,-77,14,-67,-26v16,-64,81,-105,111,-159v39,-14,86,-3,66,49","w":560},"\u00ff":{"d":"181,710v-79,-1,-117,-75,-100,-155v2,-4,6,-7,11,-8v50,22,21,110,100,95v236,-45,292,-323,269,-610v-4,-47,-13,-89,-23,-125v-100,54,-286,91,-356,-17v-36,-56,-59,-132,-60,-230v8,-17,52,-21,58,6v24,99,33,231,161,229v84,-1,192,-13,168,-114v-9,-38,-18,-80,-21,-121v-1,-28,19,-27,44,-28v59,16,65,119,73,182r40,326v-9,244,-82,450,-245,542v-35,20,-75,28,-119,28xm144,-709v15,-7,33,-15,55,-15v30,-2,40,26,40,52v0,34,-1,59,-39,57v-43,-3,-56,-41,-56,-94xm320,-709v15,-7,33,-15,55,-15v30,-2,40,26,40,52v0,34,-1,59,-39,57v-43,-3,-56,-41,-56,-94","w":560},"(":{"d":"320,-40v7,46,-55,42,-96,41v-253,-2,-221,-332,-200,-567v11,-121,39,-251,104,-321v20,-22,44,-33,72,-33v24,6,14,52,6,71v-15,37,-45,64,-60,102v-55,142,-69,347,-46,535v8,65,21,145,86,145r120,0v4,1,13,23,14,27","w":347},"&":{"d":"508,-275v-7,70,-118,64,-124,139v12,38,73,51,88,88v1,33,-22,38,-44,48v-29,-21,-65,-56,-94,-80v-62,36,-106,75,-187,67v-81,-28,-121,-102,-121,-208v0,-86,52,-142,94,-192v-3,-102,-53,-197,-10,-294v38,-87,103,-174,218,-174v34,0,74,17,86,41v15,208,-99,325,-187,440v19,47,54,107,89,141v16,14,27,23,44,19r94,-80v33,-7,57,16,54,45xm174,-320v-49,-5,-53,53,-55,99v-4,73,14,154,93,123v34,-14,83,-31,82,-75xm336,-791v-142,1,-217,171,-149,298v78,-61,139,-170,149,-298","w":540},"'":{"d":"32,-660v75,-31,100,92,80,168v-6,20,-15,36,-28,48v-54,-45,-34,-130,-57,-209v0,-3,2,-5,5,-7","w":147},"%":{"d":"588,-774v21,-3,59,-5,52,27v-71,140,-175,250,-268,368v-86,110,-181,216,-252,339v-14,24,-58,52,-88,33v-13,-20,-4,-57,-5,-86v152,-156,287,-331,427,-499r120,-168v6,-8,11,-13,14,-14xm587,-127v0,53,-66,59,-93,33v-9,-10,-14,-25,-14,-46v0,-26,33,-34,60,-35v26,-1,47,21,47,48xm162,-717v-28,-2,-53,-6,-55,-35v-3,-61,38,-67,93,-61v31,31,12,99,-38,96","w":686}}});
